<?xml version="1.0"?>
<opencv_storage>
<cascade>
  <stageType>BOOST</stageType>
  <featureType>LBP</featureType>
  <height>32</height>
  <width>32</width>
  <stageParams>
    <boostType>GAB</boostType>
    <minHitRate>9.9500000476837158e-001</minHitRate>
    <maxFalseAlarm>5.0000000000000000e-001</maxFalseAlarm>
    <weightTrimRate>9.4999999999999996e-001</weightTrimRate>
    <maxDepth>1</maxDepth>
    <maxWeakCount>100</maxWeakCount></stageParams>
  <featureParams>
    <maxCatCount>256</maxCatCount>
    <featSize>1</featSize></featureParams>
  <stageNum>20</stageNum>
  <stages>
    <!-- stage 0 -->
    <_>
      <maxWeakCount>6</maxWeakCount>
      <stageThreshold>-1.6806911230087280e+000</stageThreshold>
      <weakClassifiers>
        <_>
          <internalNodes>
            0 -1 36 -783812914 -22549 -416721441 -678964793 -108266577
            -1077176305 -222045217 89649999</internalNodes>
          <leafValues>
            -8.1442618370056152e-001 9.4502151012420654e-002</leafValues></_>
        <_>
          <internalNodes>
            0 -1 12 -521735286 -82913328 1438798193 -16652671 -934943281
            -875656798 1164005539 -754452717</internalNodes>
          <leafValues>
            -5.7276290655136108e-001 3.7733480334281921e-001</leafValues></_>
        <_>
          <internalNodes>
            0 -1 145 -800927038 -268377918 805306368 -150885950
            -973019744 -1069496124 1906627274 -67640433</internalNodes>
          <leafValues>
            -4.7913247346878052e-001 4.6315959095954895e-001</leafValues></_>
        <_>
          <internalNodes>
            0 -1 342 -102768640 1897894417 -263793424 10506304
            -527110008 -1399672170 -392125782 127739</internalNodes>
          <leafValues>
            -6.0866236686706543e-001 3.3932501077651978e-001</leafValues></_>
        <_>
          <internalNodes>
            0 -1 125 -530520430 -684207774 -380610921 2037495938
            -468644946 -376846040 1073755535 4285955</internalNodes>
          <leafValues>
            -4.9842688441276550e-001 3.7731218338012695e-001</leafValues></_>
        <_>
          <internalNodes>
            0 -1 81 -624065910 2131273026 558113561 1033722203
            -654308728 486554248 1011644623 1498280911</internalNodes>
          <leafValues>
            -4.3330031633377075e-001 3.8379135727882385e-001</leafValues></_></weakClassifiers></_>
    <!-- stage 1 -->
    <_>
      <maxWeakCount>9</maxWeakCount>
      <stageThreshold>-2.0392146110534668e+000</stageThreshold>
      <weakClassifiers>
        <_>
          <internalNodes>
            0 -1 98 -12064769 -786985 -12725761 -7869581 -303845377
            -71841074 -71304225 2068276839</internalNodes>
          <leafValues>
            -7.1510142087936401e-001 9.2892326414585114e-002</leafValues></_>
        <_>
          <internalNodes>
            0 -1 146 -773983270 1371848396 -237395320 -171919090
            -237641256 -260002915 -110260024 -2756625</internalNodes>
          <leafValues>
            -4.6377199888229370e-001 3.3842307329177856e-001</leafValues></_>
        <_>
          <internalNodes>
            0 -1 358 -187707328 -109586397 -259916673 1342228566
            -667426804 -56660409 -393947442 -1066998674</internalNodes>
          <leafValues>
            -5.2115249633789063e-001 3.0411759018898010e-001</leafValues></_>
        <_>
          <internalNodes>
            0 -1 263 -634606576 1509757492 -954198573 -47451552
            -377946952 -71812715 -903565640 134218242</internalNodes>
          <leafValues>
            -5.8149516582489014e-001 2.6288056373596191e-001</leafValues></_>
        <_>
          <internalNodes>
            0 -1 20 -823137438 -1486174654 -1661746112 -79430816
            -477120770 -1070441824 1960407360 -949488893</internalNodes>
          <leafValues>
            -4.2153027653694153e-001 3.6166051030158997e-001</leafValues></_>
        <_>
          <internalNodes>
            0 -1 54 1566411402 453324713 833169821 -1212040789
            -321060388 424149524 -112415761 500561919</internalNodes>
          <leafValues>
            -4.4987633824348450e-001 3.1526908278465271e-001</leafValues></_>
        <_>
          <internalNodes>
            0 -1 45 -1467946880 -1623015472 -1383360656 -545131712
            1833485545 -1178476400 417897676 -918166192</internalNodes>
          <leafValues>
            -4.8965471982955933e-001 2.7470919489860535e-001</leafValues></_>
        <_>
          <internalNodes>
            0 -1 139 -871373238 -130439040 600145358 -242123920
            719037099 -1964591081 171998559 1508355</internalNodes>
          <leafValues>
            -4.3866577744483948e-001 3.0386042594909668e-001</leafValues></_>
        <_>
          <internalNodes>
            0 -1 214 -259288560 1534525023 -594369 -77742353 -848190788
            -593109249 -172114182 -1744440301</internalNodes>
          <leafValues>
            -3.4989681839942932e-001 3.8381135463714600e-001</leafValues></_></weakClassifiers></_>
    <!-- stage 2 -->
    <_>
      <maxWeakCount>11</maxWeakCount>
      <stageThreshold>-1.6348149776458740e+000</stageThreshold>
      <weakClassifiers>
        <_>
          <internalNodes>
            0 -1 394 -16777490 -118558978 -57684348 -520164690
            -740314361 1725426263 -1327382 -218103825</internalNodes>
          <leafValues>
            -7.4571073055267334e-001 -1.0407239943742752e-001</leafValues></_>
        <_>
          <internalNodes>
            0 -1 217 950057840 -201830928 -311043331 -98608 -1259217488
            -68126727 -287586312 -1141894960</internalNodes>
          <leafValues>
            -5.0042587518692017e-001 2.7452152967453003e-001</leafValues></_>
        <_>
          <internalNodes>
            0 -1 119 -790630148 -256868940 -168122744 -33689129
            -169282051 1894840055 -100664084 -100663553</internalNodes>
          <leafValues>
            -3.5632115602493286e-001 3.6187258362770081e-001</leafValues></_>
        <_>
          <internalNodes>
            0 -1 61 -1431379296 -366294912 -1617744 -676926528
            -1353995552 -431228028 -1325411900 -456655616</internalNodes>
          <leafValues>
            -3.9419963955879211e-001 3.2093292474746704e-001</leafValues></_>
        <_>
          <internalNodes>
            0 -1 154 -344398080 -46152114 -539165189 -140773833
            -524439636 -1380277720 1301987007 329223</internalNodes>
          <leafValues>
            -4.7638016939163208e-001 2.8176707029342651e-001</leafValues></_>
        <_>
          <internalNodes>
            0 -1 354 -992608176 -1187501706 -68800003 989901588
            -23157026 -1529829585 -360809794 -394206570</internalNodes>
          <leafValues>
            -4.8382660746574402e-001 2.6220732927322388e-001</leafValues></_>
        <_>
          <internalNodes>
            0 -1 396 -289158652 -487925118 -589910424 -521510164
            1725153792 108395054 -709401596 -167777421</internalNodes>
          <leafValues>
            -4.4729852676391602e-001 2.6007214188575745e-001</leafValues></_>
        <_>
          <internalNodes>
            0 -1 274 -558840176 -223031312 -55542672 -215613954
            -1001082494 -52101130 -1129265926 -1079301717</internalNodes>
          <leafValues>
            -3.0683818459510803e-001 3.7770146131515503e-001</leafValues></_>
        <_>
          <internalNodes>
            0 -1 26 526855054 1036780510 730934027 396151041 504128910
            1997571084 555069134 1161830472</internalNodes>
          <leafValues>
            -5.3176647424697876e-001 2.2053489089012146e-001</leafValues></_>
        <_>
          <internalNodes>
            0 -1 197 -1371371516 -1069626712 -4194316 -169333640
            -1492674608 -1018305775 -504416800 -1044074016</internalNodes>
          <leafValues>
            -4.1343632340431213e-001 2.6280611753463745e-001</leafValues></_>
        <_>
          <internalNodes>
            0 -1 42 732472496 -1750227199 -1147539716 -4644234 -17397516
            -1078894059 417079464 -541724240</internalNodes>
          <leafValues>
            -4.4070383906364441e-001 2.4952904880046844e-001</leafValues></_></weakClassifiers></_>
    <!-- stage 3 -->
    <_>
      <maxWeakCount>13</maxWeakCount>
      <stageThreshold>-1.9179165363311768e+000</stageThreshold>
      <weakClassifiers>
        <_>
          <internalNodes>
            0 -1 383 -69206945 2036331251 -636780801 -262273 -53483265
            -117512545 -83890465 -125839649</internalNodes>
          <leafValues>
            -6.5778219699859619e-001 1.1509715765714645e-001</leafValues></_>
        <_>
          <internalNodes>
            0 -1 111 -428874002 -210597373 1741157599 -545799357
            44794542 -1394659669 1182222063 1433862915</internalNodes>
          <leafValues>
            -5.0266826152801514e-001 2.0774585008621216e-001</leafValues></_>
        <_>
          <internalNodes>
            0 -1 275 -4478053 -618599270 -337637222 -1222591062
            473248415 176175223 1230854271 1426190939</internalNodes>
          <leafValues>
            -3.7018671631813049e-001 3.1906107068061829e-001</leafValues></_>
        <_>
          <internalNodes>
            0 -1 17 -354227474 -120921822 -408999358 -245237712
            1490007478 -1081675290 880227334 -178793625</internalNodes>
          <leafValues>
            -3.9784792065620422e-001 2.7716529369354248e-001</leafValues></_>
        <_>
          <internalNodes>
            0 -1 99 -661788768 -223677585 -577971563 1809185364
            -179963905 -1092444692 -388904913 518703</internalNodes>
          <leafValues>
            -4.1095793247222900e-001 2.7910462021827698e-001</leafValues></_>
        <_>
          <internalNodes>
            0 -1 9 188850894 1598526850 14164686 862452398 197249998
            490734144 1849715658 1430634184</internalNodes>
          <leafValues>
            -4.8874884843826294e-001 2.0623762905597687e-001</leafValues></_>
        <_>
          <internalNodes>
            0 -1 204 -130492784 -802115676 -319750352 -1312269284
            -431976504 -372062360 -1906790936 -615785489</internalNodes>
          <leafValues>
            -2.9879972338676453e-001 3.3432114124298096e-001</leafValues></_>
        <_>
          <internalNodes>
            0 -1 289 -654835504 2004628468 -730727689 -1281413
            -1653020440 -108227699 -285819974 -1155525608</internalNodes>
          <leafValues>
            -4.2079317569732666e-001 2.4116340279579163e-001</leafValues></_>
        <_>
          <internalNodes>
            0 -1 379 -5250361 -12068374 -354751938 547549818 -1001404608
            -1072882924 -529546230 -1063782417</internalNodes>
          <leafValues>
            -3.5740214586257935e-001 2.8235733509063721e-001</leafValues></_>
        <_>
          <internalNodes>
            0 -1 70 -1365181808 -6314876 -1268855211 1065351668
            -1374281219 -309010098 -1995630452 -637678208</internalNodes>
          <leafValues>
            -3.4664261341094971e-001 2.8838557004928589e-001</leafValues></_>
        <_>
          <internalNodes>
            0 -1 320 -723795456 -755615285 497526944 -641733064
            -682806108 538722244 -693049920 -1210085638</internalNodes>
          <leafValues>
            -2.7918484807014465e-001 3.5038453340530396e-001</leafValues></_>
        <_>
          <internalNodes>
            0 -1 297 -81354734 -139283570 -1158226469 957387281
            1414987983 1612730107 354547915 1074910975</internalNodes>
          <leafValues>
            -3.7501111626625061e-001 2.4241258203983307e-001</leafValues></_>
        <_>
          <internalNodes>
            0 -1 186 -396318640 933012117 -226230273 -573246476
            187572425 -1732396741 -625757761 134567411</internalNodes>
          <leafValues>
            -3.5518085956573486e-001 2.5761765241622925e-001</leafValues></_></weakClassifiers></_>
    <!-- stage 4 -->
    <_>
      <maxWeakCount>15</maxWeakCount>
      <stageThreshold>-1.9380716085433960e+000</stageThreshold>
      <weakClassifiers>
        <_>
          <internalNodes>
            0 -1 386 -33 -543162625 -1027113249 -258999057 -489698738
            -17313849 -51652353 -184549377</internalNodes>
          <leafValues>
            -6.8593734502792358e-001 -2.0479001104831696e-002</leafValues></_>
        <_>
          <internalNodes>
            0 -1 37 -169352274 -637539385 1610575775 -1077938209
            -78644993 845777679 -301989905 1944059327</internalNodes>
          <leafValues>
            -4.4146302342414856e-001 2.5081506371498108e-001</leafValues></_>
        <_>
          <internalNodes>
            0 -1 23 -134219861 1852804750 -1384644813 -102244861
            -37750797 -453546057 -705170127 -134744073</internalNodes>
          <leafValues>
            -2.7788865566253662e-001 4.1516312956809998e-001</leafValues></_>
        <_>
          <internalNodes>
            0 -1 104 -541081697 400098667 -1149298506 45297839
            -287214083 892666261 -1057313 1430641119</internalNodes>
          <leafValues>
            -3.1250363588333130e-001 3.1379085779190063e-001</leafValues></_>
        <_>
          <internalNodes>
            0 -1 287 -455606180 -1820364721 -1107468617 -8595077
            -1239560996 -117638689 -117784850 -1173832661</internalNodes>
          <leafValues>
            -3.1940236687660217e-001 2.8385573625564575e-001</leafValues></_>
        <_>
          <internalNodes>
            0 -1 341 -16782848 2065427411 -1036299141 542220927
            -169935210 -1412451726 -915085061 -795672709</internalNodes>
          <leafValues>
            -3.3003219962120056e-001 2.8378084301948547e-001</leafValues></_>
        <_>
          <internalNodes>
            0 -1 13 -319882846 -1983840544 -2021443087 -613950464
            98300399 -866451792 1724333345 -1049364639</internalNodes>
          <leafValues>
            -3.7180191278457642e-001 2.2859421372413635e-001</leafValues></_>
        <_>
          <internalNodes>
            0 -1 138 1244169906 -538189131 1127069371 -643221734
            -953776645 -9460741 1171083263 202179603</internalNodes>
          <leafValues>
            -3.7020462751388550e-001 2.2650158405303955e-001</leafValues></_>
        <_>
          <internalNodes>
            0 -1 131 -242244920 428141543 621226122 2077212647
            -158002792 -1258230002 1458373258 2103312262</internalNodes>
          <leafValues>
            -3.5119792819023132e-001 2.3314009606838226e-001</leafValues></_>
        <_>
          <internalNodes>
            0 -1 64 -1053056 -932531289 -892419040 -419563926 -772353472
            7989008 -805080223 -718539409</internalNodes>
          <leafValues>
            -3.5037752985954285e-001 2.3016420006752014e-001</leafValues></_>
        <_>
          <internalNodes>
            0 -1 312 -338172890 1372807938 -866418582 455479 -868244894
            -621520031 409988046 578021919</internalNodes>
          <leafValues>
            -3.4909361600875854e-001 2.2370654344558716e-001</leafValues></_>
        <_>
          <internalNodes>
            0 -1 353 -93503408 422739103 -78465764 901955739 -361946919
            -1879291973 -274446130 -97854721</internalNodes>
          <leafValues>
            -3.1252509355545044e-001 2.4891471862792969e-001</leafValues></_>
        <_>
          <internalNodes>
            0 -1 38 -969172462 -2069379290 -365975788 -1750192366
            1343736830 620141415 335633765 1736170919</internalNodes>
          <leafValues>
            -3.6906650662422180e-001 2.1311287581920624e-001</leafValues></_>
        <_>
          <internalNodes>
            0 -1 190 -368823116 -542887444 -941654537 -1075850026
            -837009475 -1082874445 -1906494470 -1943273328</internalNodes>
          <leafValues>
            -3.5587188601493835e-001 2.1223047375679016e-001</leafValues></_>
        <_>
          <internalNodes>
            0 -1 368 -142610810 1644919718 -1468116952 1622932010
            -959552114 1146124880 -804077372 1079240183</internalNodes>
          <leafValues>
            -4.2694032192230225e-001 1.8506644666194916e-001</leafValues></_></weakClassifiers></_>
    <!-- stage 5 -->
    <_>
      <maxWeakCount>17</maxWeakCount>
      <stageThreshold>-1.5889391899108887e+000</stageThreshold>
      <weakClassifiers>
        <_>
          <internalNodes>
            0 -1 32 -202377846 -823227699 -137315312 -135533886
            -521149822 1081855426 -473970814 -205523285</internalNodes>
          <leafValues>
            -7.0428621768951416e-001 -1.6142030060291290e-001</leafValues></_>
        <_>
          <internalNodes>
            0 -1 96 -811403278 -9779664 1976342515 -537932766 -537920773
            -877687339 -1649677893 -875346717</internalNodes>
          <leafValues>
            -3.4059762954711914e-001 3.1100031733512878e-001</leafValues></_>
        <_>
          <internalNodes>
            0 -1 107 -286333214 -401985302 1256095936 -262131066
            -1718816638 190736 -171511597 -459548797</internalNodes>
          <leafValues>
            -3.1135708093643188e-001 3.0688542127609253e-001</leafValues></_>
        <_>
          <internalNodes>
            0 -1 252 -628563280 -787419356 -1261375824 1375668096
            -651393620 -35848887 -188830533 -1074068853</internalNodes>
          <leafValues>
            -2.7650773525238037e-001 3.4526768326759338e-001</leafValues></_>
        <_>
          <internalNodes>
            0 -1 40 -1147689025 286439043 253227453 -1784293313
            -732068359 4324273 808272088 1576130525</internalNodes>
          <leafValues>
            -3.2517027854919434e-001 2.8866219520568848e-001</leafValues></_>
        <_>
          <internalNodes>
            0 -1 397 -559428062 -1070928222 -352639456 -266664786
            -8477184 3569528 -375405629 -754978873</internalNodes>
          <leafValues>
            -2.8762659430503845e-001 3.2520303130149841e-001</leafValues></_>
        <_>
          <internalNodes>
            0 -1 179 -322507262 -1832752300 -58404654 -1334517116
            -166705084 1047748196 -24839463 -222345045</internalNodes>
          <leafValues>
            -3.1096574664115906e-001 2.8488683700561523e-001</leafValues></_>
        <_>
          <internalNodes>
            0 -1 108 -26490112 1073893888 -983885616 -792826180
            -819821824 1078150146 -705453392 -746346769</internalNodes>
          <leafValues>
            -3.0813452601432800e-001 2.8035345673561096e-001</leafValues></_>
        <_>
          <internalNodes>
            0 -1 355 -18879397 -79962217 -352537985 -80642529 -83962114
            -1191328012 -56721698 -352589073</internalNodes>
          <leafValues>
            -1.8750134110450745e-001 4.6347400546073914e-001</leafValues></_>
        <_>
          <internalNodes>
            0 -1 243 -1064211964 1969094253 1901842142 1767469623
            -378295048 -149728967 -285296902 248863</internalNodes>
          <leafValues>
            -3.9413532614707947e-001 2.2449007630348206e-001</leafValues></_>
        <_>
          <internalNodes>
            0 -1 233 -759511382 -1270945108 373211224 -88940310
            627152064 -1610555336 -238909032 -104136250</internalNodes>
          <leafValues>
            -2.8262397646903992e-001 3.1059241294860840e-001</leafValues></_>
        <_>
          <internalNodes>
            0 -1 105 285671848 401453802 105646558 458093838 1901602220
            503354304 1384820558 524867084</internalNodes>
          <leafValues>
            -4.2017683386802673e-001 2.1463812887668610e-001</leafValues></_>
        <_>
          <internalNodes>
            0 -1 62 -458231128 -389569216 -65589680 -210647840
            -393892992 -1039636472 1880264832 -253300556</internalNodes>
          <leafValues>
            -3.4474548697471619e-001 2.4543651938438416e-001</leafValues></_>
        <_>
          <internalNodes>
            0 -1 4 -639698216 -1100560645 1300481357 667402489 -89316688
            285313154 2047353759 465517435</internalNodes>
          <leafValues>
            -3.2704165577888489e-001 2.7096435427665710e-001</leafValues></_>
        <_>
          <internalNodes>
            0 -1 329 -1434572268 2048544774 -1798029090 839151646
            -1581582272 -1470223294 -1460997894 -1304776880</internalNodes>
          <leafValues>
            -3.7093457579612732e-001 2.3181053996086121e-001</leafValues></_>
        <_>
          <internalNodes>
            0 -1 194 -1968822480 -522014604 -819169544 -10527 -889417996
            -2136284682 1356506612 -779108140</internalNodes>
          <leafValues>
            -3.1493747234344482e-001 2.6639810204505920e-001</leafValues></_>
        <_>
          <internalNodes>
            0 -1 359 -25538360 2043090915 -55677286 -244837326
            -1134370611 -379568178 -89588225 -84750950</internalNodes>
          <leafValues>
            -2.2956009209156036e-001 3.8010933995246887e-001</leafValues></_></weakClassifiers></_>
    <!-- stage 6 -->
    <_>
      <maxWeakCount>15</maxWeakCount>
      <stageThreshold>-1.6192473173141479e+000</stageThreshold>
      <weakClassifiers>
        <_>
          <internalNodes>
            0 -1 301 -156316496 -609827424 -1732060975 -111734640
            -793075064 -1911912448 -877932135 -1683289973</internalNodes>
          <leafValues>
            -6.7050486803054810e-001 -6.5868265926837921e-002</leafValues></_>
        <_>
          <internalNodes>
            0 -1 392 -218110334 -667810744 -1403338048 -790167456
            -434905086 3293538 -526190902 -203689333</internalNodes>
          <leafValues>
            -3.9118546247482300e-001 2.8196847438812256e-001</leafValues></_>
        <_>
          <internalNodes>
            0 -1 299 -636817792 -762794112 -926977392 -249516880
            -2079545472 -2136729072 -1059932800 -1145350006</internalNodes>
          <leafValues>
            -2.8547278046607971e-001 3.5262203216552734e-001</leafValues></_>
        <_>
          <internalNodes>
            0 -1 351 -741350750 -267752992 653162032 -235985328
            -1682717312 1141012308 -167082624 -137365574</internalNodes>
          <leafValues>
            -2.3477596044540405e-001 4.1001448035240173e-001</leafValues></_>
        <_>
          <internalNodes>
            0 -1 1 -136316933 -65 -68157605 -1611563017 -538968325 -8788
            -278561 1460136863</internalNodes>
          <leafValues>
            -2.4841485917568207e-001 3.8984960317611694e-001</leafValues></_>
        <_>
          <internalNodes>
            0 -1 35 -143660542 -364468088 -487843296 -251293207
            -376704192 6730052 -1291128686 -168035861</internalNodes>
          <leafValues>
            -3.0002868175506592e-001 3.3051100373268127e-001</leafValues></_>
        <_>
          <internalNodes>
            0 -1 209 -1035542400 1379970304 -723471756 -756601140
            -1521187192 -1808466075 -214065461 -1816703286</internalNodes>
          <leafValues>
            -2.3754149675369263e-001 3.6815974116325378e-001</leafValues></_>
        <_>
          <internalNodes>
            0 -1 27 -454109502 -205067565 -771096745 -243248960
            526626271 -88241933 1859344027 -244193535</internalNodes>
          <leafValues>
            -3.1768596172332764e-001 2.8862437605857849e-001</leafValues></_>
        <_>
          <internalNodes>
            0 -1 335 -529915898 1377176338 -1300047872 1349970820
            -996503552 1413673472 -1199396212 -233050486</internalNodes>
          <leafValues>
            -3.5017213225364685e-001 2.7792352437973022e-001</leafValues></_>
        <_>
          <internalNodes>
            0 -1 374 -591249408 -140115722 -931000712 -234295994
            -391210872 1746289872 -931862296 -769464262</internalNodes>
          <leafValues>
            -3.3700841665267944e-001 2.5522753596305847e-001</leafValues></_>
        <_>
          <internalNodes>
            0 -1 285 -2113435392 -259084668 587200444 -39627552
            262379664 84187027 -1462311734 -72636501</internalNodes>
          <leafValues>
            -2.2120437026023865e-001 3.8875755667686462e-001</leafValues></_>
        <_>
          <internalNodes>
            0 -1 101 -464785686 -761208150 -11747586 2041569484
            1331689983 -1932374633 1705734887 1573900454</internalNodes>
          <leafValues>
            -3.1118613481521606e-001 2.8985381126403809e-001</leafValues></_>
        <_>
          <internalNodes>
            0 -1 133 -236522790 -762461705 -1646000116 -304566552
            2009970125 1388631001 -1881322358 -551959586</internalNodes>
          <leafValues>
            -3.0567988753318787e-001 2.9248207807540894e-001</leafValues></_>
        <_>
          <internalNodes>
            0 -1 364 -68425592 -631115890 582645428 -773204863
            -1251028288 97345377 -453326966 -201351985</internalNodes>
          <leafValues>
            -1.9187718629837036e-001 4.6571469306945801e-001</leafValues></_>
        <_>
          <internalNodes>
            0 -1 187 1377557081 -72421567 -1711423561 -583062671
            -1113201512 -562380809 -1417834785 945150707</internalNodes>
          <leafValues>
            -2.5593283772468567e-001 3.6194279789924622e-001</leafValues></_></weakClassifiers></_>
    <!-- stage 7 -->
    <_>
      <maxWeakCount>14</maxWeakCount>
      <stageThreshold>-2.0141491889953613e+000</stageThreshold>
      <weakClassifiers>
        <_>
          <internalNodes>
            0 -1 255 -611658024 -47052800 -623470895 -205795183
            -693468934 -1200879616 -2051366742 -1078263669</internalNodes>
          <leafValues>
            -6.5796560049057007e-001 3.7136465311050415e-002</leafValues></_>
        <_>
          <internalNodes>
            0 -1 269 -353761264 -213243070 -263038735 -240987300
            -1145447484 -832315376 -1193893636 -74739282</internalNodes>
          <leafValues>
            -3.3963131904602051e-001 3.4049665927886963e-001</leafValues></_>
        <_>
          <internalNodes>
            0 -1 381 -91504510 -894522132 -1895837696 -1839085846
            -978526016 1146366470 -1785793358 -740580197</internalNodes>
          <leafValues>
            -2.9439768195152283e-001 3.2684022188186646e-001</leafValues></_>
        <_>
          <internalNodes>
            0 -1 160 -494214528 -765449660 -231031504 -142873040
            -192944448 537952126 -134301750 -138443073</internalNodes>
          <leafValues>
            -2.0712009072303772e-001 4.7070270776748657e-001</leafValues></_>
        <_>
          <internalNodes>
            0 -1 389 -218107200 -797883262 942833730 -771439394
            -1775062016 -1878785006 -793066870 -792469285</internalNodes>
          <leafValues>
            -3.1383597850799561e-001 3.0277347564697266e-001</leafValues></_>
        <_>
          <internalNodes>
            0 -1 348 -21348216 -656249340 1321138841 1935288842
            -1963002744 -2056495808 -1266758502 -78997366</internalNodes>
          <leafValues>
            -2.3430688679218292e-001 3.9423573017120361e-001</leafValues></_>
        <_>
          <internalNodes>
            0 -1 172 -328683520 -213849936 -339882160 -6131536
            -1939888462 -431741168 1204978102 -1716550528</internalNodes>
          <leafValues>
            -2.5831928849220276e-001 3.5064688324928284e-001</leafValues></_>
        <_>
          <internalNodes>
            0 -1 165 -219242358 -714723804 1927892706 1370995374
            -1261469558 1073897796 -235826261 -202396257</internalNodes>
          <leafValues>
            -1.7925305664539337e-001 4.9404543638229370e-001</leafValues></_>
        <_>
          <internalNodes>
            0 -1 77 -90443574 -805048414 -134318112 -804526112
            -806516862 -1069124668 -501825062 -220989873</internalNodes>
          <leafValues>
            -2.0698310434818268e-001 4.1844975948333740e-001</leafValues></_>
        <_>
          <internalNodes>
            0 -1 221 -360000320 -9958786 -1887488833 -740096446
            -1393580360 2070585335 -297285969 -1678774134</internalNodes>
          <leafValues>
            -2.1272273361682892e-001 4.0899187326431274e-001</leafValues></_>
        <_>
          <internalNodes>
            0 -1 244 -100100016 -3396039 -1720685116 -1200939 -643390228
            108816119 -1304565832 -1884683128</internalNodes>
          <leafValues>
            -2.7964830398559570e-001 3.1995788216590881e-001</leafValues></_>
        <_>
          <internalNodes>
            0 -1 55 -1898543720 -1803179527 -1390438724 1006087134
            -240823843 -1290950541 -457068088 2010639307</internalNodes>
          <leafValues>
            -3.1974837183952332e-001 2.8621566295623779e-001</leafValues></_>
        <_>
          <internalNodes>
            0 -1 333 -201602368 -1327468760 -1746080624 -606560532
            -1787836784 1689558470 -1107757696 -1280573766</internalNodes>
          <leafValues>
            -2.6724231243133545e-001 3.6108595132827759e-001</leafValues></_>
        <_>
          <internalNodes>
            0 -1 178 -230956920 -684659538 -404068832 -250085768
            -1171335486 -2059078068 -251665510 -138686801</internalNodes>
          <leafValues>
            -1.8474721908569336e-001 4.9145472049713135e-001</leafValues></_></weakClassifiers></_>
    <!-- stage 8 -->
    <_>
      <maxWeakCount>20</maxWeakCount>
      <stageThreshold>-1.8430012464523315e+000</stageThreshold>
      <weakClassifiers>
        <_>
          <internalNodes>
            0 -1 10 -269484033 -1049121 -1 -33 -3145729 -801281 -2097153
            -2057</internalNodes>
          <leafValues>
            -6.1988353729248047e-001 8.9082382619380951e-002</leafValues></_>
        <_>
          <internalNodes>
            0 -1 135 -480119885 -243931693 -170467329 -33554958
            803208191 -787467 -1914831873 -838920751</internalNodes>
          <leafValues>
            -3.2546189427375793e-001 2.7898237109184265e-001</leafValues></_>
        <_>
          <internalNodes>
            0 -1 345 -378077161 -686670001 -67192038 -1181948825
            -977331971 -859082241 -167876097 -89332741</internalNodes>
          <leafValues>
            -2.7867183089256287e-001 2.8464093804359436e-001</leafValues></_>
        <_>
          <internalNodes>
            0 -1 177 -1059012720 -253769993 -1176597235 -303233299
            -146435145 -470560811 -1075405013 -1076940917</internalNodes>
          <leafValues>
            -2.5405207276344299e-001 2.8316527605056763e-001</leafValues></_>
        <_>
          <internalNodes>
            0 -1 242 -109393647 -33571043 1333624543 -201327745
            -788881155 -4218977 -86640897 705555999</internalNodes>
          <leafValues>
            -2.4757876992225647e-001 2.7695360779762268e-001</leafValues></_>
        <_>
          <internalNodes>
            0 -1 375 -25691640 -1267349633 -295976838 10841023 -20140472
            -50927806 -457912184 -1069417745</internalNodes>
          <leafValues>
            -3.1471067667007446e-001 2.4150152504444122e-001</leafValues></_>
        <_>
          <internalNodes>
            0 -1 43 1002811319 -1212795659 734954112 -1078086805
            1775508959 936659933 2070358733 1371891541</internalNodes>
          <leafValues>
            -3.5014289617538452e-001 1.9455166161060333e-001</leafValues></_>
        <_>
          <internalNodes>
            0 -1 298 -604778817 -679958338 -19329121 -140494078
            2042052031 171072766 1357002565 1897266987</internalNodes>
          <leafValues>
            -2.7006104588508606e-001 2.4860401451587677e-001</leafValues></_>
        <_>
          <internalNodes>
            0 -1 166 -503283688 -688344017 -666716906 -47948315
            -370851634 2096413675 -1890116613 134545463</internalNodes>
          <leafValues>
            -3.5053113102912903e-001 1.9417846202850342e-001</leafValues></_>
        <_>
          <internalNodes>
            0 -1 41 -369626906 817267710 -1886877529 -1352284755
            1519992032 888779678 -70395057 255584731</internalNodes>
          <leafValues>
            -3.8109210133552551e-001 1.6996957361698151e-001</leafValues></_>
        <_>
          <internalNodes>
            0 -1 58 -1969031272 -1243850780 -1483024514 -582044910
            761182133 -321360797 180708604 -1879465935</internalNodes>
          <leafValues>
            -3.3457955718040466e-001 1.9277553260326385e-001</leafValues></_>
        <_>
          <internalNodes>
            0 -1 49 -9441458 -423106168 1660454240 -257561696 1559093090
            1675021305 -218712957 -798633549</internalNodes>
          <leafValues>
            -2.9488492012023926e-001 2.0957027375698090e-001</leafValues></_>
        <_>
          <internalNodes>
            0 -1 316 -20177920 -160145646 -225249290 1882183475
            -311784884 -488833948 -15291732 -111132470</internalNodes>
          <leafValues>
            -2.6109179854393005e-001 2.4042175710201263e-001</leafValues></_>
        <_>
          <internalNodes>
            0 -1 5 -85553968 553528083 -557426185 389125943 -3406859
            1017205749 -960803623 1365488483</internalNodes>
          <leafValues>
            -3.3476784825325012e-001 1.9282008707523346e-001</leafValues></_>
        <_>
          <internalNodes>
            0 -1 231 1209054096 -34240260 1409595639 -520623557
            1878894231 -1627762060 -1120563298 -1895093878</internalNodes>
          <leafValues>
            -2.4339666962623596e-001 2.4937222898006439e-001</leafValues></_>
        <_>
          <internalNodes>
            0 -1 245 1716289568 473935622 -621883527 1549939 2046900772
            -176505756 -1384714626 1070</internalNodes>
          <leafValues>
            -5.7935607433319092e-001 1.0561934858560562e-001</leafValues></_>
        <_>
          <internalNodes>
            0 -1 357 1388445908 992612180 28748783 529028014 -163440712
            2140697015 -223860006 -1474280446</internalNodes>
          <leafValues>
            -3.8657015562057495e-001 1.5155023336410522e-001</leafValues></_>
        <_>
          <internalNodes>
            0 -1 112 -1191263494 -1298422272 -313672 -212628848
            1148673276 751297292 1725554640 1897360931</internalNodes>
          <leafValues>
            -3.1895929574966431e-001 1.9426386058330536e-001</leafValues></_>
        <_>
          <internalNodes>
            0 -1 18 1876945698 -341129312 333701046 2075452962
            -269585528 132884966 -388536560 -1502085725</internalNodes>
          <leafValues>
            -3.2243844866752625e-001 1.9403783977031708e-001</leafValues></_>
        <_>
          <internalNodes>
            0 -1 350 -214960374 1931975588 -20546974 -1565728800
            2111041300 1162015084 2055557632 1372955056</internalNodes>
          <leafValues>
            -4.2191684246063232e-001 1.5122497081756592e-001</leafValues></_></weakClassifiers></_>
    <!-- stage 9 -->
    <_>
      <maxWeakCount>18</maxWeakCount>
      <stageThreshold>-1.7049438953399658e+000</stageThreshold>
      <weakClassifiers>
        <_>
          <internalNodes>
            0 -1 384 -16777345 -134218753 -352354305 -84475909 -16777393
            -3 -525569 -184549633</internalNodes>
          <leafValues>
            -6.7458575963973999e-001 -8.1153586506843567e-002</leafValues></_>
        <_>
          <internalNodes>
            0 -1 65 -295174153 -528809 -2049 -5381 -1076889601 -2103825
            -178697 -67144073</internalNodes>
          <leafValues>
            -3.0637547373771667e-001 3.7252765893936157e-001</leafValues></_>
        <_>
          <internalNodes>
            0 -1 59 -1397751885 -139343 -33555075 -4194480 -1937776643
            -274449 -287357475 -302127724</internalNodes>
          <leafValues>
            -2.4297761917114258e-001 3.3861324191093445e-001</leafValues></_>
        <_>
          <internalNodes>
            0 -1 271 -134217945 14066551 -353442252 1684203478
            1442269029 1364590023 -236740185 -1577063425</internalNodes>
          <leafValues>
            -3.1045040488243103e-001 2.4457463622093201e-001</leafValues></_>
        <_>
          <internalNodes>
            0 -1 313 -1074985963 -57825 1433370295 -71729547 -78463010
            -787617 -1925545990 -1171247496</internalNodes>
          <leafValues>
            -3.0874767899513245e-001 2.4138867855072021e-001</leafValues></_>
        <_>
          <internalNodes>
            0 -1 365 -1065417648 -1143046563 -286020297 -1380031266
            -388202755 -111375397 -55099762 -399055809</internalNodes>
          <leafValues>
            -3.0765622854232788e-001 2.3323692381381989e-001</leafValues></_>
        <_>
          <internalNodes>
            0 -1 24 -153092497 -771756049 -1358967118 -765267976
            -186136577 -386009779 -152840349 -260573225</internalNodes>
          <leafValues>
            -2.3802538216114044e-001 2.8278830647468567e-001</leafValues></_>
        <_>
          <internalNodes>
            0 -1 152 -1343055439 654293563 -21253 -806885152 -1623851657
            -67389001 -560996609 -1930668875</internalNodes>
          <leafValues>
            -2.6655593514442444e-001 2.5047549605369568e-001</leafValues></_>
        <_>
          <internalNodes>
            0 -1 134 1971299319 -169739785 536414766 -1412894931
            -545309713 -1663238724 1003267274 -574554674</internalNodes>
          <leafValues>
            -2.2427496314048767e-001 2.8370660543441772e-001</leafValues></_>
        <_>
          <internalNodes>
            0 -1 265 134219828 920135644 2078277119 1025191828
            -1925564929 -31492185 -424239914 137368848</internalNodes>
          <leafValues>
            -5.9926021099090576e-001 1.0924765467643738e-001</leafValues></_>
        <_>
          <internalNodes>
            0 -1 225 -17931 1878829950 -1342656596 -1479299442 -34177228
            729575222 -1174456007 -1398822979</internalNodes>
          <leafValues>
            -2.4726720154285431e-001 2.6552343368530273e-001</leafValues></_>
        <_>
          <internalNodes>
            0 -1 53 1705758246 -958225301 -890608384 796446306 225439717
            -2132647096 390558576 1676104018</internalNodes>
          <leafValues>
            -4.4416061043739319e-001 1.4074450731277466e-001</leafValues></_>
        <_>
          <internalNodes>
            0 -1 47 1498889990 1057683310 993285754 433057022 1979669391
            1678533064 -479298564 1355742188</internalNodes>
          <leafValues>
            -3.8784950971603394e-001 1.5536980330944061e-001</leafValues></_>
        <_>
          <internalNodes>
            0 -1 132 -1036854672 447147743 -1230569698 -1574902630
            1463024897 842088311 922067734 -684196121</internalNodes>
          <leafValues>
            -3.7800967693328857e-001 1.6206865012645721e-001</leafValues></_>
        <_>
          <internalNodes>
            0 -1 323 1072156599 2013128645 -1107821279 -243796127
            1467841409 352189951 -118366015 -187205389</internalNodes>
          <leafValues>
            -2.2570165991783142e-001 2.8093042969703674e-001</leafValues></_>
        <_>
          <internalNodes>
            0 -1 306 -520224683 433716959 -2643457 2146926383 -169718632
            -56702469 1926224860 -1708594857</internalNodes>
          <leafValues>
            -2.5988456606864929e-001 2.5094678997993469e-001</leafValues></_>
        <_>
          <internalNodes>
            0 -1 29 -389024338 -1024528534 -1514668433 1734722272
            -1461782753 -1883841626 1985967892 1438111586</internalNodes>
          <leafValues>
            -3.4751078486442566e-001 1.8728591501712799e-001</leafValues></_>
        <_>
          <internalNodes>
            0 -1 292 -320160240 1432331283 -621116852 1221551 -336091372
            337398073 -1841569079 816970367</internalNodes>
          <leafValues>
            -4.0473499894142151e-001 1.4418828487396240e-001</leafValues></_></weakClassifiers></_>
    <!-- stage 10 -->
    <_>
      <maxWeakCount>21</maxWeakCount>
      <stageThreshold>-1.6153825521469116e+000</stageThreshold>
      <weakClassifiers>
        <_>
          <internalNodes>
            0 -1 382 -161 -65 -67371009 -1221 -54525953 -16385 -16777473
            -16777217</internalNodes>
          <leafValues>
            -6.1477166414260864e-001 1.3167795538902283e-001</leafValues></_>
        <_>
          <internalNodes>
            0 -1 189 -58984161 -306181 -1245708289 -37748833 -301993537
            -33554433 -117440838 -117440833</internalNodes>
          <leafValues>
            -2.4590580165386200e-001 3.6599186062812805e-001</leafValues></_>
        <_>
          <internalNodes>
            0 -1 15 -269484105 -1347770846 -537526401 -2064 -136839209
            -301989889 1740257264 -134742477</internalNodes>
          <leafValues>
            -2.3028007149696350e-001 3.0102294683456421e-001</leafValues></_>
        <_>
          <internalNodes>
            0 -1 115 -520884305 -387195805 -744521770 -218699974
            1618196343 1614968191 -438923433 -134221489</internalNodes>
          <leafValues>
            -2.3149918019771576e-001 2.8229877352714539e-001</leafValues></_>
        <_>
          <internalNodes>
            0 -1 376 -222298593 -19617 -19497350 -1238309124 -136907508
            -25231553 -151069300 -252969881</internalNodes>
          <leafValues>
            -2.5888687372207642e-001 2.5228378176689148e-001</leafValues></_>
        <_>
          <internalNodes>
            0 -1 246 -1364577200 -8589456 -67837961 -539951745
            -1342198579 -1159381249 -1899085893 -1922024144</internalNodes>
          <leafValues>
            -3.5320603847503662e-001 1.7378117144107819e-001</leafValues></_>
        <_>
          <internalNodes>
            0 -1 250 -319052956 78052919 -74649916 -403772626 -151522443
            79079393 -1208627692 -1245713685</internalNodes>
          <leafValues>
            -3.1318053603172302e-001 2.1897572278976440e-001</leafValues></_>
        <_>
          <internalNodes>
            0 -1 87 -1700778049 -1082168283 -2115207173 -1141138046
            687672793 -1115853737 -728424967 -43006800</internalNodes>
          <leafValues>
            -2.5714412331581116e-001 2.3412397503852844e-001</leafValues></_>
        <_>
          <internalNodes>
            0 -1 155 -953617615 -541927312 1341126363 -538370224
            328510911 -40650762 1340144357 162337041</internalNodes>
          <leafValues>
            -3.0762216448783875e-001 1.9416941702365875e-001</leafValues></_>
        <_>
          <internalNodes>
            0 -1 219 1537691362 1353907959 -285938398 618675882
            1375142995 1947448146 1734683658 1173773335</internalNodes>
          <leafValues>
            -3.9904996752738953e-001 1.4752365648746490e-001</leafValues></_>
        <_>
          <internalNodes>
            0 -1 74 -1229393476 -538386448 -15303937 -571065872
            856407945 -1077937153 359277243 -515668720</internalNodes>
          <leafValues>
            -2.6885271072387695e-001 2.1175158023834229e-001</leafValues></_>
        <_>
          <internalNodes>
            0 -1 302 102957073 -1528139340 -1664682923 1442793517
            -1372118250 -1367670849 391978883 -807437029</internalNodes>
          <leafValues>
            -2.4820975959300995e-001 2.2782900929450989e-001</leafValues></_>
        <_>
          <internalNodes>
            0 -1 103 2045454650 1765866959 793545486 -1612407565
            -170532870 -255787652 -1634081397 -317858161</internalNodes>
          <leafValues>
            -2.4168337881565094e-001 2.3532053828239441e-001</leafValues></_>
        <_>
          <internalNodes>
            0 -1 78 -205785469 -355188 851147696 -536351424 -162696346
            -419517620 1716384320 -1073691310</internalNodes>
          <leafValues>
            -2.7584353089332581e-001 2.0885354280471802e-001</leafValues></_>
        <_>
          <internalNodes>
            0 -1 176 -1432049900 -2107707596 -1690947835 663621630
            834008881 618873759 915877391 570175271</internalNodes>
          <leafValues>
            -4.2395758628845215e-001 1.4072996377944946e-001</leafValues></_>
        <_>
          <internalNodes>
            0 -1 340 -956936458 470310842 -1290082788 179193418
            -593702183 1760575165 -101389345 -131404170</internalNodes>
          <leafValues>
            -2.9242473840713501e-001 1.9535273313522339e-001</leafValues></_>
        <_>
          <internalNodes>
            0 -1 257 -203636814 964140731 -1216553035 829009807
            -260935088 954576551 -38906438 1079237711</internalNodes>
          <leafValues>
            -3.0015888810157776e-001 1.9558873772621155e-001</leafValues></_>
        <_>
          <internalNodes>
            0 -1 162 -78135503 937226081 -92787815 543346206 -1158820631
            -843096006 -1136833336 1685090090</internalNodes>
          <leafValues>
            -3.0314493179321289e-001 1.8557754158973694e-001</leafValues></_>
        <_>
          <internalNodes>
            0 -1 268 -1998185391 -63824290 -329507207 980687171
            -2111269964 -293949936 -1083068516 -1674574740</internalNodes>
          <leafValues>
            -3.0401200056076050e-001 1.9658668339252472e-001</leafValues></_>
        <_>
          <internalNodes>
            0 -1 7 707202956 125819366 629876708 -1155272047 635054318
            89411264 1852645358 2000810304</internalNodes>
          <leafValues>
            -4.5433190464973450e-001 1.2297491729259491e-001</leafValues></_>
        <_>
          <internalNodes>
            0 -1 373 -903344076 433304252 -719586337 2145994717
            -352537003 -293666831 -1600586389 -933218230</internalNodes>
          <leafValues>
            -3.4091454744338989e-001 1.6892872750759125e-001</leafValues></_></weakClassifiers></_>
    <!-- stage 11 -->
    <_>
      <maxWeakCount>22</maxWeakCount>
      <stageThreshold>-1.7176803350448608e+000</stageThreshold>
      <weakClassifiers>
        <_>
          <internalNodes>
            0 -1 110 -806357005 -4194567 -1119363107 -37234950 -7340039
            -34620425 -1076887569 -67110925</internalNodes>
          <leafValues>
            -6.2756437063217163e-001 -1.1862917244434357e-001</leafValues></_>
        <_>
          <internalNodes>
            0 -1 385 -151008697 1989402495 -285331849 8191767 -858562746
            -2134450 -50331698 -1059070402</internalNodes>
          <leafValues>
            -3.7119194865226746e-001 1.5185074508190155e-001</leafValues></_>
        <_>
          <internalNodes>
            0 -1 83 -153358369 -1158284760 -1115816529 -76060777
            1081322367 -1258311737 1949812599 -137105409</internalNodes>
          <leafValues>
            -2.0017036795616150e-001 3.0739936232566833e-001</leafValues></_>
        <_>
          <internalNodes>
            0 -1 48 -1977436240 -179522191 -1415645421 -1108871726
            1269763307 -340873487 1324739999 -849742544</internalNodes>
          <leafValues>
            -3.1700861454010010e-001 1.8819512426853180e-001</leafValues></_>
        <_>
          <internalNodes>
            0 -1 281 -20992605 -1651864001 -1076201953 -314526969
            1768621567 1814355671 501569755 1411447623</internalNodes>
          <leafValues>
            -2.6732236146926880e-001 2.2977909445762634e-001</leafValues></_>
        <_>
          <internalNodes>
            0 -1 290 -294140336 2071940869 -1323421825 -264896701
            2111042652 -71077129 -99419173 842148651</internalNodes>
          <leafValues>
            -3.1421300768852234e-001 1.7332711815834045e-001</leafValues></_>
        <_>
          <internalNodes>
            0 -1 21 -118497266 -1375012662 1812354802 -1058004254
            385315679 79871538 1435792243 1612183543</internalNodes>
          <leafValues>
            -4.3985736370086670e-001 1.1970861256122589e-001</leafValues></_>
        <_>
          <internalNodes>
            0 -1 117 -755041294 2061500155 -268474587 -1342191761
            578091699 -789351558 -810223617 -43169</internalNodes>
          <leafValues>
            -2.0219740271568298e-001 2.6855766773223877e-001</leafValues></_>
        <_>
          <internalNodes>
            0 -1 109 -1011883229 -875567377 -838991874 -574763038
            1270284287 -10485825 1878243327 -846207273</internalNodes>
          <leafValues>
            -1.4784510433673859e-001 3.4678435325622559e-001</leafValues></_>
        <_>
          <internalNodes>
            0 -1 344 -637656975 459030503 -1653866795 196350038
            2129333413 678360026 534474157 -22487442</internalNodes>
          <leafValues>
            -2.5934854149818420e-001 2.0410589873790741e-001</leafValues></_>
        <_>
          <internalNodes>
            0 -1 317 -269568942 691322165 -978121438 645795375
            -244634112 1143532373 1236740872 23845678</internalNodes>
          <leafValues>
            -3.8524597883224487e-001 1.3230319321155548e-001</leafValues></_>
        <_>
          <internalNodes>
            0 -1 71 723251120 -606684328 520965717 -47322768 501207478
            -1342250340 1196248169 -1902287856</internalNodes>
          <leafValues>
            -2.6460170745849609e-001 1.9786770641803741e-001</leafValues></_>
        <_>
          <internalNodes>
            0 -1 218 -1206378480 -180870572 -50528459 -1092379880
            -90919184 -134726278 2087001829 134217905</internalNodes>
          <leafValues>
            -4.5549452304840088e-001 1.1422236263751984e-001</leafValues></_>
        <_>
          <internalNodes>
            0 -1 295 -891838444 -634373345 -317509544 -1357467814
            1686451407 209606757 912081079 1433657115</internalNodes>
          <leafValues>
            -3.0214068293571472e-001 1.6865983605384827e-001</leafValues></_>
        <_>
          <internalNodes>
            0 -1 390 -823924088 -825301284 -1396339646 -1058029428
            -1774947840 -960759272 845361427 1145557271</internalNodes>
          <leafValues>
            -4.0918463468551636e-001 1.2776748836040497e-001</leafValues></_>
        <_>
          <internalNodes>
            0 -1 39 -1970329030 555762324 -1113384010 -1477463946
            1490895084 213987996 -103953016 1566917857</internalNodes>
          <leafValues>
            -3.6043104529380798e-001 1.4061817526817322e-001</leafValues></_>
        <_>
          <internalNodes>
            0 -1 232 -150351425 1992482555 665114839 -1745031241
            -270790673 -1357521177 1581188891 -1461768314</internalNodes>
          <leafValues>
            -1.8795888125896454e-001 2.8713914752006531e-001</leafValues></_>
        <_>
          <internalNodes>
            0 -1 249 -789919407 -688478302 -1627430978 -209802570
            -205142524 -1100186345 -160369416 -1962376920</internalNodes>
          <leafValues>
            -2.1426108479499817e-001 2.4717506766319275e-001</leafValues></_>
        <_>
          <internalNodes>
            0 -1 170 -1192508928 2040756060 -925143110 674489434
            -1177475472 852954511 -273229192 1088678683</internalNodes>
          <leafValues>
            -4.1439554095268250e-001 1.1934621632099152e-001</leafValues></_>
        <_>
          <internalNodes>
            0 -1 325 -701890312 285019220 -1461757188 -1949230375
            -771706466 -722306145 -27357666 -1710584565</internalNodes>
          <leafValues>
            -2.2785288095474243e-001 2.3322461545467377e-001</leafValues></_>
        <_>
          <internalNodes>
            0 -1 148 1883698435 1345492447 -1111737034 951774907
            -805464675 -53359305 -1107370535 -394920257</internalNodes>
          <leafValues>
            -2.0595169067382813e-001 2.6872715353965759e-001</leafValues></_>
        <_>
          <internalNodes>
            0 -1 272 2032436920 -1303315661 -1508991499 897584488
            -715872013 -1900086159 -1683649879 532349487</internalNodes>
          <leafValues>
            -2.7097657322883606e-001 2.0391134917736053e-001</leafValues></_></weakClassifiers></_>
    <!-- stage 12 -->
    <_>
      <maxWeakCount>24</maxWeakCount>
      <stageThreshold>-1.5715838670730591e+000</stageThreshold>
      <weakClassifiers>
        <_>
          <internalNodes>
            0 -1 395 -545259537 -28312577 -19923714 -520096041
            -170399930 -1099432177 -152191530 -167772161</internalNodes>
          <leafValues>
            -6.5360653400421143e-001 -2.2967997193336487e-001</leafValues></_>
        <_>
          <internalNodes>
            0 -1 68 -437257857 -832833864 -545262602 -3165525 1324318719
            513206255 1165451447 -44353</internalNodes>
          <leafValues>
            -2.9860088229179382e-001 2.0208072662353516e-001</leafValues></_>
        <_>
          <internalNodes>
            0 -1 22 -671090843 -827919890 -86245438 -269287517 -69732865
            1666574322 -140250079 -412615001</internalNodes>
          <leafValues>
            -2.7862906455993652e-001 2.0872387290000916e-001</leafValues></_>
        <_>
          <internalNodes>
            0 -1 327 -285235449 1601660691 -461703313 540403471
            -161043358 2130075207 -460413973 544734007</internalNodes>
          <leafValues>
            -2.8940495848655701e-001 1.9201438128948212e-001</leafValues></_>
        <_>
          <internalNodes>
            0 -1 168 -1390232560 -175210894 1065205693 -306319754
            -705562665 -1645088843 1832222398 -861338175</internalNodes>
          <leafValues>
            -2.0090065896511078e-001 2.6675793528556824e-001</leafValues></_>
        <_>
          <internalNodes>
            0 -1 360 -61608377 2131689275 2030019934 1985465005
            -859832808 -65802277 -1562714946 -251920865</internalNodes>
          <leafValues>
            -2.3668718338012695e-001 2.2470968961715698e-001</leafValues></_>
        <_>
          <internalNodes>
            0 -1 211 -252741260 1895603959 -1624453236 -1109246070
            -252191753 -772620290 -1000893436 -2142768913</internalNodes>
          <leafValues>
            -3.0554538965225220e-001 1.7665629088878632e-001</leafValues></_>
        <_>
          <internalNodes>
            0 -1 309 1591623933 -655397031 -34342179 -78683395 -8132099
            -20295441 -1443190146 -1154469965</internalNodes>
          <leafValues>
            -2.3756608366966248e-001 2.2437098622322083e-001</leafValues></_>
        <_>
          <internalNodes>
            0 -1 91 -1727481960 -37031172 -1610754561 -1712982316
            536573729 -67170484 623713260 -1927277568</internalNodes>
          <leafValues>
            -3.4543666243553162e-001 1.5777777135372162e-001</leafValues></_>
        <_>
          <internalNodes>
            0 -1 334 2070933280 -2096170165 -343737774 -256772318
            1467346788 564656084 -727322352 1886519040</internalNodes>
          <leafValues>
            -4.6487993001937866e-001 1.0627692192792892e-001</leafValues></_>
        <_>
          <internalNodes>
            0 -1 127 -893710837 -1599869104 -1242708699 -1691900606
            7563135 213307178 1735882277 1143994135</internalNodes>
          <leafValues>
            -3.1298434734344482e-001 1.6001150012016296e-001</leafValues></_>
        <_>
          <internalNodes>
            0 -1 6 -286801746 -1279873037 -516065409 1538468881
            -2064217617 1827717857 -1582021202 1936947975</internalNodes>
          <leafValues>
            -2.4963861703872681e-001 2.0132870972156525e-001</leafValues></_>
        <_>
          <internalNodes>
            0 -1 266 -1361437612 -579569891 -17079395 1046244521
            -1905739051 -1397875432 -428441643 -2010119044</internalNodes>
          <leafValues>
            -3.6985611915588379e-001 1.3562677800655365e-001</leafValues></_>
        <_>
          <internalNodes>
            0 -1 82 -201606241 1435774845 -1210172305 771075839
            -1083938313 361544698 -7562274 -1109593605</internalNodes>
          <leafValues>
            -1.9555060565471649e-001 2.5723627209663391e-001</leafValues></_>
        <_>
          <internalNodes>
            0 -1 198 -578929712 -281219222 557556344 129935598
            1330208519 -859648011 1471490840 -1912826182</internalNodes>
          <leafValues>
            -2.4619142711162567e-001 1.9877287745475769e-001</leafValues></_>
        <_>
          <internalNodes>
            0 -1 76 -93110114 1740388526 2063483344 -1321949842
            934971694 1824453539 80638472 -1060974934</internalNodes>
          <leafValues>
            -2.6498442888259888e-001 1.8797843158245087e-001</leafValues></_>
        <_>
          <internalNodes>
            0 -1 34 -646716026 -1058346838 -1430016 -991136854
            -1266813113 1457831875 -1310226861 -211290297</internalNodes>
          <leafValues>
            -3.1856113672256470e-001 1.5110923349857330e-001</leafValues></_>
        <_>
          <internalNodes>
            0 -1 126 1657700866 -197662062 1829229182 -108440914
            -748773989 1333721518 1143338923 97452423</internalNodes>
          <leafValues>
            -2.7770140767097473e-001 1.8620668351650238e-001</leafValues></_>
        <_>
          <internalNodes>
            0 -1 200 -362110188 741649373 -1373885942 197405054
            1929197329 -1989842251 2105355307 108274862</internalNodes>
          <leafValues>
            -4.0080407261848450e-001 1.2432896345853806e-001</leafValues></_>
        <_>
          <internalNodes>
            0 -1 121 -1697420288 275249699 -1681863624 547678326
            -2076314076 1498806119 -1261516512 1143075639</internalNodes>
          <leafValues>
            -4.8081609606742859e-001 1.0180887579917908e-001</leafValues></_>
        <_>
          <internalNodes>
            0 -1 388 -219496664 -1071809553 -2133274970 -1267797257
            -1161212144 22294355 -6818745 1148710779</internalNodes>
          <leafValues>
            -3.8424369692802429e-001 1.2859846651554108e-001</leafValues></_>
        <_>
          <internalNodes>
            0 -1 0 -219905308 -221435564 1774747647 -573536302
            -888909130 -537982589 -24391921 88304131</internalNodes>
          <leafValues>
            -2.9791113734245300e-001 1.6498550772666931e-001</leafValues></_>
        <_>
          <internalNodes>
            0 -1 227 -3211150 1419836575 -233437446 2107665030 24450743
            739268809 1663385941 829806007</internalNodes>
          <leafValues>
            -3.4412482380867004e-001 1.4692017436027527e-001</leafValues></_>
        <_>
          <internalNodes>
            0 -1 171 -290802892 -78628263 -543204879 -1741417030
            1079953398 -38487056 216111814 13632545</internalNodes>
          <leafValues>
            -3.8467091321945190e-001 1.2962563335895538e-001</leafValues></_></weakClassifiers></_>
    <!-- stage 13 -->
    <_>
      <maxWeakCount>24</maxWeakCount>
      <stageThreshold>-1.4901329278945923e+000</stageThreshold>
      <weakClassifiers>
        <_>
          <internalNodes>
            0 -1 11 -269484545 -13841 -581043201 -67117089 -772277253
            -37751121 -413139025 -536872969</internalNodes>
          <leafValues>
            -6.1059886217117310e-001 -9.7867690026760101e-002</leafValues></_>
        <_>
          <internalNodes>
            0 -1 188 -665196235 2037904703 -1759756547 -1176527981
            2013250221 -100681993 2061228027 135003919</internalNodes>
          <leafValues>
            -3.2830870151519775e-001 1.2599594891071320e-001</leafValues></_>
        <_>
          <internalNodes>
            0 -1 163 1844816814 2044413742 19409418 801850090
            -1220661588 2026405380 2096568970 1335878154</internalNodes>
          <leafValues>
            -2.8452250361442566e-001 1.7142748832702637e-001</leafValues></_>
        <_>
          <internalNodes>
            0 -1 371 -520617900 1973191535 -1074617345 -1082755511
            -126068792 -1259413767 -1225365268 -1476392368</internalNodes>
          <leafValues>
            -4.2389452457427979e-001 1.1403387039899826e-001</leafValues></_>
        <_>
          <internalNodes>
            0 -1 153 -285017101 -558302276 1862123007 1339422591
            -1957569089 -38279693 -840120850 -565349161</internalNodes>
          <leafValues>
            -1.4355291426181793e-001 3.1742089986801147e-001</leafValues></_>
        <_>
          <internalNodes>
            0 -1 228 -321585480 -754619067 -463668240 867298683
            -379801120 -830747717 921976489 434569354</internalNodes>
          <leafValues>
            -2.4008621275424957e-001 2.0967094600200653e-001</leafValues></_>
        <_>
          <internalNodes>
            0 -1 264 -41949404 1566571279 549178862 14126270 1201104448
            -1776383819 -675810582 845647894</internalNodes>
          <leafValues>
            -3.3450397849082947e-001 1.4535091817378998e-001</leafValues></_>
        <_>
          <internalNodes>
            0 -1 88 884388792 -1074677487 1573904119 863607476 472226741
            -1448317131 750328953 -13631607</internalNodes>
          <leafValues>
            -2.4930977821350098e-001 1.9085368514060974e-001</leafValues></_>
        <_>
          <internalNodes>
            0 -1 102 -318782678 571255938 670476168 1884794124 123709439
            233105123 1652515841 1476277895</internalNodes>
          <leafValues>
            -3.2795888185501099e-001 1.4135363698005676e-001</leafValues></_>
        <_>
          <internalNodes>
            0 -1 382 -64106681 425320631 -1082687525 -1086591437
            -1730359393 1560141405 -18489666 -58724481</internalNodes>
          <leafValues>
            -1.6365483403205872e-001 2.9950562119483948e-001</leafValues></_>
        <_>
          <internalNodes>
            0 -1 208 -1057032876 280356527 -1246188242 -473961621
            -674295305 -1561239621 -1926729078 582272511</internalNodes>
          <leafValues>
            -2.6323857903480530e-001 1.8147598206996918e-001</leafValues></_>
        <_>
          <internalNodes>
            0 -1 362 -109841529 1349112881 -788959 -232031062 -293684306
            -1365889984 -344006216 -1063004944</internalNodes>
          <leafValues>
            -1.8542303144931793e-001 2.5418937206268311e-001</leafValues></_>
        <_>
          <internalNodes>
            0 -1 324 1246596621 1226272631 1203761978 1408593629
            -625607796 -868089957 -613429558 -1698487266</internalNodes>
          <leafValues>
            -2.0611558854579926e-001 2.3773129284381866e-001</leafValues></_>
        <_>
          <internalNodes>
            0 -1 226 2082255280 -849285910 356821937 969770635 860337836
            1987008269 1979003415 1031604778</internalNodes>
          <leafValues>
            -2.8108522295951843e-001 1.6375163197517395e-001</leafValues></_>
        <_>
          <internalNodes>
            0 -1 120 2090579256 -1649297759 195001492 1033557578
            2005890496 689526020 -354652840 1011932353</internalNodes>
          <leafValues>
            -3.2641935348510742e-001 1.4116895198822021e-001</leafValues></_>
        <_>
          <internalNodes>
            0 -1 213 -526162863 -1951484937 2079976747 -2060067473
            1147359892 -191226554 1609940063 -588154761</internalNodes>
          <leafValues>
            -2.0668870210647583e-001 2.3674578964710236e-001</leafValues></_>
        <_>
          <internalNodes>
            0 -1 30 2120216303 1543469495 643412696 -161349749
            1207367079 1157457778 553022131 -260572321</internalNodes>
          <leafValues>
            -2.3543246090412140e-001 2.0088149607181549e-001</leafValues></_>
        <_>
          <internalNodes>
            0 -1 241 640092199 15220404 -967905803 442615519 -111001084
            -1090687987 2121530602 -75541061</internalNodes>
          <leafValues>
            -2.3455049097537994e-001 2.0211918652057648e-001</leafValues></_>
        <_>
          <internalNodes>
            0 -1 380 -546389334 -536158200 754194600 342158584 -22152127
            1107618096 1717609664 1081343318</internalNodes>
          <leafValues>
            -3.8187301158905029e-001 1.2611025571823120e-001</leafValues></_>
        <_>
          <internalNodes>
            0 -1 270 281485363 1604742102 -286983668 1575000654
            -11555584 -679610411 -783486936 -1629508965</internalNodes>
          <leafValues>
            -2.1177704632282257e-001 2.2447915375232697e-001</leafValues></_>
        <_>
          <internalNodes>
            0 -1 44 191169384 2045703318 764423070 666781996 2032025500
            2126799252 629218888 1157658120</internalNodes>
          <leafValues>
            -4.7678461670875549e-001 9.9956370890140533e-002</leafValues></_>
        <_>
          <internalNodes>
            0 -1 332 -417603168 42352111 -1480585343 1223085224
            1165878224 1084503190 -463380478 1973516063</internalNodes>
          <leafValues>
            -3.7919908761978149e-001 1.1708328127861023e-001</leafValues></_>
        <_>
          <internalNodes>
            0 -1 279 -20993646 -785019993 -1916575798 -104290538
            492438750 750321009 1895705167 1208305119</internalNodes>
          <leafValues>
            -2.7585738897323608e-001 1.7452049255371094e-001</leafValues></_>
        <_>
          <internalNodes>
            0 -1 14 -299117312 -835935578 -1948542096 -813761072
            1624241077 -600996266 1682973926 96337571</internalNodes>
          <leafValues>
            -3.1976935267448425e-001 1.5449225902557373e-001</leafValues></_></weakClassifiers></_>
    <!-- stage 14 -->
    <_>
      <maxWeakCount>26</maxWeakCount>
      <stageThreshold>-1.6088982820510864e+000</stageThreshold>
      <weakClassifiers>
        <_>
          <internalNodes>
            0 -1 288 -50406945 2073951125 -78645825 2080357119
            -151529314 -88363521 -50331686 -92274853</internalNodes>
          <leafValues>
            -6.2720155715942383e-001 -2.1223022043704987e-001</leafValues></_>
        <_>
          <internalNodes>
            0 -1 207 -524941808 -237588994 -1343713795 -67238635
            -69756995 -1107529815 1606724876 -1179906772</internalNodes>
          <leafValues>
            -2.6431638002395630e-001 1.7626340687274933e-001</leafValues></_>
        <_>
          <internalNodes>
            0 -1 347 -93192068 1539190077 -1100317577 1631640253
            -1834959618 -623188 -456066818 -469732334</internalNodes>
          <leafValues>
            -2.6839482784271240e-001 1.7185817658901215e-001</leafValues></_>
        <_>
          <internalNodes>
            0 -1 124 -307572367 2012130994 -1073816795 -5257985
            2136926206 -1615479597 525328043 -855026349</internalNodes>
          <leafValues>
            -1.8193386495113373e-001 2.5096201896667480e-001</leafValues></_>
        <_>
          <internalNodes>
            0 -1 361 -83888638 -1828508101 1803930335 1347710743
            -502868152 -1632799765 -2104143362 -255593409</internalNodes>
          <leafValues>
            -2.3916153609752655e-001 2.1495474874973297e-001</leafValues></_>
        <_>
          <internalNodes>
            0 -1 141 -827401418 -960359190 -673193607 1474164688
            604351979 -1349614610 121075025 1168826818</internalNodes>
          <leafValues>
            -2.9543003439903259e-001 1.4825049042701721e-001</leafValues></_>
        <_>
          <internalNodes>
            0 -1 16 -345322537 -273699158 -1073749159 -973078686
            1467857402 -810041689 771696119 -977805390</internalNodes>
          <leafValues>
            -1.9165480136871338e-001 2.4553988873958588e-001</leafValues></_>
        <_>
          <internalNodes>
            0 -1 85 -632630942 -1305217129 -901843170 -1561049462
            1649928981 1356283361 -539564120 1978135466</internalNodes>
          <leafValues>
            -3.2006871700286865e-001 1.3822126388549805e-001</leafValues></_>
        <_>
          <internalNodes>
            0 -1 220 -1360381326 -155317766 2101343482 -1224410896
            -1694648735 -358725250 1133102064 -1927134080</internalNodes>
          <leafValues>
            -2.7421239018440247e-001 1.6119426488876343e-001</leafValues></_>
        <_>
          <internalNodes>
            0 -1 3 -1160959126 1607056330 -1212143587 2144663635
            -285892724 302066888 -1324628001 332491343</internalNodes>
          <leafValues>
            -3.1752154231071472e-001 1.4537133276462555e-001</leafValues></_>
        <_>
          <internalNodes>
            0 -1 258 1519305936 -630317648 -1695385871 1498136229
            -1925198920 -1111720135 -1083782758 -1627176945</internalNodes>
          <leafValues>
            -1.6840101778507233e-001 2.7555358409881592e-001</leafValues></_>
        <_>
          <internalNodes>
            0 -1 93 1876815586 508193508 -662380942 -492408850
            -956176434 1145021287 1988031686 -521683361</internalNodes>
          <leafValues>
            -2.4713556468486786e-001 1.8465122580528259e-001</leafValues></_>
        <_>
          <internalNodes>
            0 -1 180 1899354839 -99812209 1011328649 606470664
            1608340874 -1749161645 894296586 1137769158</internalNodes>
          <leafValues>
            -2.4465210735797882e-001 1.7860761284828186e-001</leafValues></_>
        <_>
          <internalNodes>
            0 -1 236 -570011984 -1699050638 -26034475 -1709114691
            -1346888000 -1194955896 -828473719 -819525621</internalNodes>
          <leafValues>
            -2.0314918458461761e-001 2.1378669142723083e-001</leafValues></_>
        <_>
          <internalNodes>
            0 -1 247 -2359828 364111791 -319560246 32499620 -1493325880
            754196182 -306334628 -67634</internalNodes>
          <leafValues>
            -1.8191175162792206e-001 2.5097376108169556e-001</leafValues></_>
        <_>
          <internalNodes>
            0 -1 46 -2043437904 -1625244233 -39612899 1829732344
            837033697 2134196087 150805853 -1922734959</internalNodes>
          <leafValues>
            -2.8210023045539856e-001 1.6047596931457520e-001</leafValues></_>
        <_>
          <internalNodes>
            0 -1 169 -1979531728 -1516075376 -562897857 1604446137
            623221719 -413745181 176438997 139989377</internalNodes>
          <leafValues>
            -3.8640454411506653e-001 1.1736144125461578e-001</leafValues></_>
        <_>
          <internalNodes>
            0 -1 282 1886645171 -934108929 -6328188 -1190647614
            1901563319 280480749 -1527311022 1951914463</internalNodes>
          <leafValues>
            -2.8027743101119995e-001 1.6718810796737671e-001</leafValues></_>
        <_>
          <internalNodes>
            0 -1 203 1949879984 -744208420 -285711723 299065876
            -1118544407 744997877 -1267373865 933430144</internalNodes>
          <leafValues>
            -2.7924984693527222e-001 1.7338679730892181e-001</leafValues></_>
        <_>
          <internalNodes>
            0 -1 199 -354505648 1089883220 -1115968598 208539547
            -1949475313 1618391899 -1507915980 1377431850</internalNodes>
          <leafValues>
            -3.5767716169357300e-001 1.2711119651794434e-001</leafValues></_>
        <_>
          <internalNodes>
            0 -1 293 440973584 -634032349 1754260208 -1126019209
            350487200 -41396272 989334715 754533930</internalNodes>
          <leafValues>
            -3.4186312556266785e-001 1.4202906191349030e-001</leafValues></_>
        <_>
          <internalNodes>
            0 -1 343 -117504940 1058291613 230976597 957923946
            1337873848 513694591 920649423 740971503</internalNodes>
          <leafValues>
            -3.0350312590599060e-001 1.5164887905120850e-001</leafValues></_>
        <_>
          <internalNodes>
            0 -1 338 -86513248 570820463 -121635754 871658244 -67643612
            1570071 1706395460 -460884701</internalNodes>
          <leafValues>
            -3.5675266385078430e-001 1.2623004615306854e-001</leafValues></_>
        <_>
          <internalNodes>
            0 -1 79 1325097992 -993608472 1248348514 -502373746
            1464766980 1424216162 1347113588 1080482850</internalNodes>
          <leafValues>
            -5.1526123285293579e-001 9.2265039682388306e-002</leafValues></_>
        <_>
          <internalNodes>
            0 -1 308 1082012754 960605413 1744335682 617672360
            1815501570 784333755 946210938 546361922</internalNodes>
          <leafValues>
            -4.2146959900856018e-001 1.0228418558835983e-001</leafValues></_>
        <_>
          <internalNodes>
            0 -1 363 -1343225861 1323281899 1861285578 -185745807
            -1073938806 -848494620 2121060494 -253510069</internalNodes>
          <leafValues>
            -1.8751779198646545e-001 2.5172725319862366e-001</leafValues></_></weakClassifiers></_>
    <!-- stage 15 -->
    <_>
      <maxWeakCount>29</maxWeakCount>
      <stageThreshold>-1.6377233266830444e+000</stageThreshold>
      <weakClassifiers>
        <_>
          <internalNodes>
            0 -1 196 -608268 2004829565 -2047430725 -43172097 -621569121
            -285373115 -1090537537 -4460565</internalNodes>
          <leafValues>
            -6.2332016229629517e-001 -2.4027778208255768e-001</leafValues></_>
        <_>
          <internalNodes>
            0 -1 113 -892340304 -1745967452 -1885502218 -1109398382
            -857563683 -656006316 670463157 -335544653</internalNodes>
          <leafValues>
            -2.8117898106575012e-001 1.3153077661991119e-001</leafValues></_>
        <_>
          <internalNodes>
            0 -1 149 2013172447 -149831687 986524068 1061804526
            2144310252 -1694110246 1036886922 -547750194</internalNodes>
          <leafValues>
            -1.9650584459304810e-001 2.2224467992782593e-001</leafValues></_>
        <_>
          <internalNodes>
            0 -1 391 -730861993 1391976223 -360782314 1923476719
            -63479284 -8409282 -19221522 -261624209</internalNodes>
          <leafValues>
            -1.6713657975196838e-001 2.4371613562107086e-001</leafValues></_>
        <_>
          <internalNodes>
            0 -1 314 -352350433 2033821467 -453412260 310217443
            -285226872 2091374342 -285738358 -89391249</internalNodes>
          <leafValues>
            -1.8198016285896301e-001 2.2750747203826904e-001</leafValues></_>
        <_>
          <internalNodes>
            0 -1 60 -2111258640 -111871032 -1988518435 -1084399404
            1983835869 -295859229 -410157585 220299264</internalNodes>
          <leafValues>
            -2.8944945335388184e-001 1.7392854392528534e-001</leafValues></_>
        <_>
          <internalNodes>
            0 -1 129 -427118646 -356061633 -1968207186 -1486150923
            2120613659 162731900 124213147 1204897039</internalNodes>
          <leafValues>
            -3.1308281421661377e-001 1.4082327485084534e-001</leafValues></_>
        <_>
          <internalNodes>
            0 -1 372 -123285160 464781179 995616095 1057715195
            2116398784 -914457229 -805771186 -93159869</internalNodes>
          <leafValues>
            -2.0030793547630310e-001 2.1377930045127869e-001</leafValues></_>
        <_>
          <internalNodes>
            0 -1 94 -562051934 -527588736 -901516800 -1059181718
            -419645180 107408766 -199305982 1942316686</internalNodes>
          <leafValues>
            -3.1343978643417358e-001 1.3474376499652863e-001</leafValues></_>
        <_>
          <internalNodes>
            0 -1 136 1679997984 1370097522 -154179311 -610288184
            -279467097 2143300660 -1637768709 230626531</internalNodes>
          <leafValues>
            -2.7685061097145081e-001 1.4900316298007965e-001</leafValues></_>
        <_>
          <internalNodes>
            0 -1 305 35062784 -1758466774 -574794445 74895569 327008651
            1321086369 1008474019 1274011387</internalNodes>
          <leafValues>
            -2.4458120763301849e-001 1.6509352624416351e-001</leafValues></_>
        <_>
          <internalNodes>
            0 -1 156 -332863342 -590155690 -972370789 -1349676031
            772367077 -286092892 1605721755 205899735</internalNodes>
          <leafValues>
            -2.2991350293159485e-001 1.8585634231567383e-001</leafValues></_>
        <_>
          <internalNodes>
            0 -1 224 -293673199 -17891844 1035923131 -541130832
            -1108482299 -860389514 -351827 -55204188</internalNodes>
          <leafValues>
            -1.7249590158462524e-001 2.4099698662757874e-001</leafValues></_>
        <_>
          <internalNodes>
            0 -1 256 -272643952 -1372812490 -605135683 2813482 -27513552
            -656741643 225137152 -1928334558</internalNodes>
          <leafValues>
            -2.6777976751327515e-001 1.5662738680839539e-001</leafValues></_>
        <_>
          <internalNodes>
            0 -1 284 714998291 715669416 -838861451 -673159689
            -1403227084 -1493237873 955200767 -6586901</internalNodes>
          <leafValues>
            -1.9436936080455780e-001 2.1789510548114777e-001</leafValues></_>
        <_>
          <internalNodes>
            0 -1 57 1894825776 832612263 -1445344548 819124914
            -2113572364 1281669237 -278640320 1359340692</internalNodes>
          <leafValues>
            -4.0288329124450684e-001 1.1029352992773056e-001</leafValues></_>
        <_>
          <internalNodes>
            0 -1 89 392132364 1043236214 751973880 267857592 2026479261
            1070399404 -334020358 1078909162</internalNodes>
          <leafValues>
            -3.3661767840385437e-001 1.2644408643245697e-001</leafValues></_>
        <_>
          <internalNodes>
            0 -1 184 -557586813 -1746356064 -17024003 -705868071
            1442808339 -1401727628 1521935837 -214960913</internalNodes>
          <leafValues>
            -1.4032168686389923e-001 3.0837967991828918e-001</leafValues></_>
        <_>
          <internalNodes>
            0 -1 31 -542117965 -313528790 1324605280 -1243640126
            1878900443 253747148 -187340942 -241696965</internalNodes>
          <leafValues>
            -1.6360998153686523e-001 2.5618231296539307e-001</leafValues></_>
        <_>
          <internalNodes>
            0 -1 276 -736646524 401880666 -285237515 -53544 1895581113
            -1116344968 552877802 -1414644732</internalNodes>
          <leafValues>
            -2.0456451177597046e-001 2.2222653031349182e-001</leafValues></_>
        <_>
          <internalNodes>
            0 -1 197 -1370580461 -1005923798 -39963792 -170393492
            765956944 -1956711436 33364196 -727681788</internalNodes>
          <leafValues>
            -2.9954552650451660e-001 1.5083017945289612e-001</leafValues></_>
        <_>
          <internalNodes>
            0 -1 67 -726925044 -1528914073 -1543414784 -1600350629
            1965647684 63393098 821849409 8678627</internalNodes>
          <leafValues>
            -5.9984612464904785e-001 6.8641334772109985e-002</leafValues></_>
        <_>
          <internalNodes>
            0 -1 174 -622190380 -207181776 -587276289 1038432128
            1839937471 -1911015841 1877181706 -839171894</internalNodes>
          <leafValues>
            -1.9269093871116638e-001 2.2305940091609955e-001</leafValues></_>
        <_>
          <internalNodes>
            0 -1 356 -866847232 1600604142 -93354401 845193532
            -558036404 -1659606759 1181275294 1355075151</internalNodes>
          <leafValues>
            -3.8742098212242126e-001 1.1196237057447433e-001</leafValues></_>
        <_>
          <internalNodes>
            0 -1 223 854505460 96244785 -857241415 -1544766918
            1836250429 1298117496 -320915176 -72642625</internalNodes>
          <leafValues>
            -2.1600636839866638e-001 2.0271696150302887e-001</leafValues></_>
        <_>
          <internalNodes>
            0 -1 315 1856902224 -541778158 236965627 315433965
            -302510916 -424795512 -1477440374 100668520</internalNodes>
          <leafValues>
            -3.7804654240608215e-001 1.1570771783590317e-001</leafValues></_>
        <_>
          <internalNodes>
            0 -1 86 -1878589555 -1819600068 -430207464 2686140
            -742709868 1366389893 -1139910211 1683871587</internalNodes>
          <leafValues>
            -2.9671108722686768e-001 1.4695768058300018e-001</leafValues></_>
        <_>
          <internalNodes>
            0 -1 331 1513025094 1622325231 2009942544 -1516451286
            -1033202303 47334334 -507286910 1942962494</internalNodes>
          <leafValues>
            -2.8999462723731995e-001 1.4892941713333130e-001</leafValues></_>
        <_>
          <internalNodes>
            0 -1 310 1301233731 2020845397 -394046895 584931488
            1824476300 -1674458482 -113204772 -1431864502</internalNodes>
          <leafValues>
            -2.4320386350154877e-001 1.8629156053066254e-001</leafValues></_></weakClassifiers></_>
    <!-- stage 16 -->
    <_>
      <maxWeakCount>28</maxWeakCount>
      <stageThreshold>-1.5199092626571655e+000</stageThreshold>
      <weakClassifiers>
        <_>
          <internalNodes>
            0 -1 144 -35194882 -2408099 -1890244721 -409132842
            -143147591 -604622081 -4341845 -536908289</internalNodes>
          <leafValues>
            -6.2415307760238647e-001 -2.4831308424472809e-001</leafValues></_>
        <_>
          <internalNodes>
            0 -1 142 -949030986 -83187592 -417606027 355649942 15273911
            -274221665 1459050463 1595883807</internalNodes>
          <leafValues>
            -2.8248959779739380e-001 1.1911471933126450e-001</leafValues></_>
        <_>
          <internalNodes>
            0 -1 56 -1710511809 -38535957 364952893 -1208261034
            -125963332 -1617285170 2088571625 -275910732</internalNodes>
          <leafValues>
            -2.2943568229675293e-001 1.8062679469585419e-001</leafValues></_>
        <_>
          <internalNodes>
            0 -1 296 -214108940 -792142095 -1091803407 -542024402
            -454773577 -877932588 -437959170 -1389679922</internalNodes>
          <leafValues>
            -1.8567308783531189e-001 2.1409507095813751e-001</leafValues></_>
        <_>
          <internalNodes>
            0 -1 215 -1276444126 1680109872 -340926849 74250814
            879509984 -1094763196 1997218022 560279654</internalNodes>
          <leafValues>
            -3.0440643429756165e-001 1.5937040746212006e-001</leafValues></_>
        <_>
          <internalNodes>
            0 -1 366 -92659628 309915263 1962557206 797065882 351108350
            1428878040 2020875116 -1473750502</internalNodes>
          <leafValues>
            -3.6382144689559937e-001 1.1216542869806290e-001</leafValues></_>
        <_>
          <internalNodes>
            0 -1 235 -785454440 -739709808 -1124300076 -252474116
            -102707754 -990818955 -302875576 -1151121749</internalNodes>
          <leafValues>
            -1.7903810739517212e-001 2.2706662118434906e-001</leafValues></_>
        <_>
          <internalNodes>
            0 -1 303 184517665 775563994 374814065 871360060 586590140
            -2119206861 1940006353 -1678822753</internalNodes>
          <leafValues>
            -2.0588457584381104e-001 2.0147860050201416e-001</leafValues></_>
        <_>
          <internalNodes>
            0 -1 326 -497054586 -539410913 -586281367 53989903
            -260968244 -596119788 -1219625078 846711394</internalNodes>
          <leafValues>
            -2.3041582107543945e-001 1.8761102855205536e-001</leafValues></_>
        <_>
          <internalNodes>
            0 -1 349 -335544369 1172025318 2029413892 -135299081
            1744304332 -806355937 -672870848 -772294461</internalNodes>
          <leafValues>
            -1.7340615391731262e-001 2.3725298047065735e-001</leafValues></_>
        <_>
          <internalNodes>
            0 -1 123 1209182114 233744561 1835007654 -1074796734
            1095236447 -1984578459 -512134945 -943910432</internalNodes>
          <leafValues>
            -2.8257864713668823e-001 1.5146279335021973e-001</leafValues></_>
        <_>
          <internalNodes>
            0 -1 377 -23070054 594220802 -1091384324 283362998
            -1367644660 2119432575 -139970354 1355277947</internalNodes>
          <leafValues>
            -2.7470073103904724e-001 1.5640519559383392e-001</leafValues></_>
        <_>
          <internalNodes>
            0 -1 19 -860097882 -1400571968 -1361980672 -496449598
            -996723846 -1710428107 76440928 1919407859</internalNodes>
          <leafValues>
            -4.3121451139450073e-001 9.4571620225906372e-002</leafValues></_>
        <_>
          <internalNodes>
            0 -1 151 -702168886 -1327110565 -28464252 -195232511
            -745595105 -512059129 1757071622 -528135443</internalNodes>
          <leafValues>
            -2.9720130562782288e-001 1.4149281382560730e-001</leafValues></_>
        <_>
          <internalNodes>
            0 -1 239 -661631992 -789288725 -1099793547 1598753917
            -185459476 -2120004225 -1359982341 -348451638</internalNodes>
          <leafValues>
            -1.7202773690223694e-001 2.6712530851364136e-001</leafValues></_>
        <_>
          <internalNodes>
            0 -1 287 -761397168 -1338754341 -1748443530 765302707
            -598910828 1224604381 976854634 707267609</internalNodes>
          <leafValues>
            -3.4628742933273315e-001 1.2180151790380478e-001</leafValues></_>
        <_>
          <internalNodes>
            0 -1 73 -1146954288 1942156460 1389034489 -47859060
            -879286807 -382295345 1202992921 -2043526124</internalNodes>
          <leafValues>
            -2.8965613245964050e-001 1.4467905461788177e-001</leafValues></_>
        <_>
          <internalNodes>
            0 -1 147 -1259340764 553436334 -808022769 -1544606770
            391737908 27042840 -1195249881 74142063</internalNodes>
          <leafValues>
            -4.6258085966110229e-001 8.9972600340843201e-002</leafValues></_>
        <_>
          <internalNodes>
            0 -1 202 -556479566 -1853822676 -467751243 -119270
            -193585415 -2016131148 2137962495 -1075360026</internalNodes>
          <leafValues>
            -1.6177922487258911e-001 2.6968479156494141e-001</leafValues></_>
        <_>
          <internalNodes>
            0 -1 183 -637907423 1371391729 1995747956 1522907248
            2128265792 1581580101 -1476544788 -213137781</internalNodes>
          <leafValues>
            -1.8345308303833008e-001 2.3400208353996277e-001</leafValues></_>
        <_>
          <internalNodes>
            0 -1 346 -222668076 2063544196 2120902335 823803228
            -50422056 -1713029828 -537481217 -644682514</internalNodes>
          <leafValues>
            -1.7158800363540649e-001 2.5559753179550171e-001</leafValues></_>
        <_>
          <internalNodes>
            0 -1 167 -295394556 -1211928998 -252020507 1450292025
            -1015025674 -379936154 1262677996 141955914</internalNodes>
          <leafValues>
            -3.4764823317527771e-001 1.2391511350870132e-001</leafValues></_>
        <_>
          <internalNodes>
            0 -1 63 -678429441 2134444607 2089545760 -801577150
            1557090455 1191062239 1086481598 -791556474</internalNodes>
          <leafValues>
            -2.0983470976352692e-001 2.0284579694271088e-001</leafValues></_>
        <_>
          <internalNodes>
            0 -1 237 1390068400 -153197868 -151461897 832787981
            -1403551660 -1979781676 -17337925 -1154524961</internalNodes>
          <leafValues>
            -1.5035471320152283e-001 2.8313252329826355e-001</leafValues></_>
        <_>
          <internalNodes>
            0 -1 280 -824656163 -740508488 1234548756 -1391434948
            934594492 -671188740 -1456690124 -1926542132</internalNodes>
          <leafValues>
            -2.3320180177688599e-001 1.8260391056537628e-001</leafValues></_>
        <_>
          <internalNodes>
            0 -1 185 1243325170 498011759 1795028981 -653969163
            595398878 382025412 1744086699 -78710934</internalNodes>
          <leafValues>
            -1.7006900906562805e-001 2.5303429365158081e-001</leafValues></_>
        <_>
          <internalNodes>
            0 -1 378 -382734689 -290985158 753401713 1508834488
            -138820102 -60096908 -1804676658 -736889344</internalNodes>
          <leafValues>
            -1.7592981457710266e-001 2.4253539741039276e-001</leafValues></_>
        <_>
          <internalNodes>
            0 -1 2 -1484379414 771843500 1210008290 -1239840266
            1710177796 1078285120 -325113918 633420881</internalNodes>
          <leafValues>
            -5.3674739599227905e-001 8.1384740769863129e-002</leafValues></_></weakClassifiers></_>
    <!-- stage 17 -->
    <_>
      <maxWeakCount>32</maxWeakCount>
      <stageThreshold>-1.4794898033142090e+000</stageThreshold>
      <weakClassifiers>
        <_>
          <internalNodes>
            0 -1 300 -550511879 -5352520 -24414735 -712015875 -105988950
            -1677908304 932967835 -1616125553</internalNodes>
          <leafValues>
            -6.0184931755065918e-001 -1.8334180116653442e-001</leafValues></_>
        <_>
          <internalNodes>
            0 -1 12 -1064402514 -1437677614 2112553215 -1618610447
            611315663 -290234443 761870323 -1822951469</internalNodes>
          <leafValues>
            -3.1316706538200378e-001 8.7678328156471252e-002</leafValues></_>
        <_>
          <internalNodes>
            0 -1 252 -628033904 1427156924 -1932460816 1039158848
            1346152366 -1378943544 -1128342337 536806027</internalNodes>
          <leafValues>
            -2.4357046186923981e-001 1.6153483092784882e-001</leafValues></_>
        <_>
          <internalNodes>
            0 -1 191 -865287856 -1724336623 -2900675 -1611293034
            -621300524 -1124308775 -340918949 1208047187</internalNodes>
          <leafValues>
            -2.2011552751064301e-001 1.8085627257823944e-001</leafValues></_>
        <_>
          <internalNodes>
            0 -1 210 1347741332 -795943174 -266274085 -169218894
            -394796332 -1203196704 -883565822 -867204858</internalNodes>
          <leafValues>
            -1.9592155516147614e-001 2.0749257504940033e-001</leafValues></_>
        <_>
          <internalNodes>
            0 -1 66 1652647786 737436253 -941710818 -7674134 -379911721
            -269771537 -567343940 1683452003</internalNodes>
          <leafValues>
            -3.2443663477897644e-001 1.3283018767833710e-001</leafValues></_>
        <_>
          <internalNodes>
            0 -1 387 -688459345 980396783 1454597726 -520159666
            -661189812 1358773223 -120326277 -261621813</internalNodes>
          <leafValues>
            -2.6143148541450500e-001 1.5543450415134430e-001</leafValues></_>
        <_>
          <internalNodes>
            0 -1 273 -757480288 301267961 1826129785 -1275320758
            -638241663 -69523118 -84868163 -1947849182</internalNodes>
          <leafValues>
            -1.9167990982532501e-001 2.0302335917949677e-001</leafValues></_>
        <_>
          <internalNodes>
            0 -1 277 -1024473901 118157236 -1434540576 1368034310
            -2036922889 1106701303 1589335056 894566058</internalNodes>
          <leafValues>
            -2.6724159717559814e-001 1.4540877938270569e-001</leafValues></_>
        <_>
          <internalNodes>
            0 -1 122 -1820280936 -42688543 -145056411 -1679883012
            393162429 -808117732 1752241293 -1423083712</internalNodes>
          <leafValues>
            -2.4674791097640991e-001 1.5906009078025818e-001</leafValues></_>
        <_>
          <internalNodes>
            0 -1 259 103433968 -21207152 -1890396675 725222885
            -1499832832 -1080358316 1608801535 -1962195894</internalNodes>
          <leafValues>
            -2.0979653298854828e-001 1.8405734002590179e-001</leafValues></_>
        <_>
          <internalNodes>
            0 -1 193 -1568533488 -683395853 -661140010 -1687412846
            -1972192012 -1618776567 185000703 134485104</internalNodes>
          <leafValues>
            -4.9472883343696594e-001 8.1483125686645508e-002</leafValues></_>
        <_>
          <internalNodes>
            0 -1 318 -816666476 -644825762 -196913812 -1113044196
            -258128936 1632907518 1552764067 1373985787</internalNodes>
          <leafValues>
            -2.6454403996467590e-001 1.4466232061386108e-001</leafValues></_>
        <_>
          <internalNodes>
            0 -1 307 -990623224 1482410397 -871513316 1437826873
            -591739300 1224193692 -826820072 -2012917929</internalNodes>
          <leafValues>
            -2.6556202769279480e-001 1.5061818063259125e-001</leafValues></_>
        <_>
          <internalNodes>
            0 -1 238 -658571788 -35590890 -102040367 1669459567 -7022703
            -330023137 -1103204973 -339749873</internalNodes>
          <leafValues>
            -1.4932842552661896e-001 2.7333652973175049e-001</leafValues></_>
        <_>
          <internalNodes>
            0 -1 352 -995719147 -1799963843 -269070480 2032316675
            1626451657 337080849 -554179334 -930975377</internalNodes>
          <leafValues>
            -2.6323431730270386e-001 1.5081301331520081e-001</leafValues></_>
        <_>
          <internalNodes>
            0 -1 260 136973488 1516529276 486508531 1912601535 423054826
            -807339753 1453306363 -547680865</internalNodes>
          <leafValues>
            -1.8094566464424133e-001 2.2798676788806915e-001</leafValues></_>
        <_>
          <internalNodes>
            0 -1 128 -1183319270 203781904 -283396690 -2053226818
            494120473 -247676075 -1120167761 -318915990</internalNodes>
          <leafValues>
            -2.2710153460502625e-001 1.8339957296848297e-001</leafValues></_>
        <_>
          <internalNodes>
            0 -1 157 -152135371 977451616 -437258923 -681188716
            215937001 -272711745 368568309 -810297605</internalNodes>
          <leafValues>
            -1.5616865456104279e-001 2.7068349719047546e-001</leafValues></_>
        <_>
          <internalNodes>
            0 -1 72 117970402 460296694 22452388 640847074 1106139658
            1992321866 876881812 1981951172</internalNodes>
          <leafValues>
            -3.9510631561279297e-001 9.9941626191139221e-002</leafValues></_>
        <_>
          <internalNodes>
            0 -1 261 1416006406 19021066 -1464822942 -1339766490
            -365529499 761248594 385120020 200146775</internalNodes>
          <leafValues>
            -3.7197077274322510e-001 1.0531438887119293e-001</leafValues></_>
        <_>
          <internalNodes>
            0 -1 52 1826036276 -2098223327 -607670290 -1646567256
            1115010281 411945086 1417481540 1904715434</internalNodes>
          <leafValues>
            -2.8588092327117920e-001 1.3896079361438751e-001</leafValues></_>
        <_>
          <internalNodes>
            0 -1 51 134234624 -318447018 -1287152724 -357894612
            -801819523 487951842 -153269953 682414128</internalNodes>
          <leafValues>
            -3.2875579595565796e-001 1.2470794469118118e-001</leafValues></_>
        <_>
          <internalNodes>
            0 -1 92 -4737677 1589698430 1316415542 -990607168 190819408
            -879986346 -580311996 -1069290966</internalNodes>
          <leafValues>
            -2.3205235600471497e-001 1.7576166987419128e-001</leafValues></_>
        <_>
          <internalNodes>
            0 -1 195 -123019500 -144830616 -383797259 -1669767988
            634826718 -1909131265 1328936954 -864664398</internalNodes>
          <leafValues>
            -1.8962396681308746e-001 2.2182896733283997e-001</leafValues></_>
        <_>
          <internalNodes>
            0 -1 319 1579081862 -154685444 -1157962331 -607715345
            1976911021 -696909843 -1629452310 -1146129190</internalNodes>
          <leafValues>
            -1.4721770584583282e-001 2.7519351243972778e-001</leafValues></_>
        <_>
          <internalNodes>
            0 -1 304 -1672485029 -1750697375 1727455184 -557188080
            1648168895 221781463 211332255 -303042246</internalNodes>
          <leafValues>
            -1.4930498600006104e-001 2.8100091218948364e-001</leafValues></_>
        <_>
          <internalNodes>
            0 -1 216 1097736486 1799385010 -326881669 551854868
            1900217408 2140422705 -154203410 352926202</internalNodes>
          <leafValues>
            -3.3528029918670654e-001 1.2963180243968964e-001</leafValues></_>
        <_>
          <internalNodes>
            0 -1 158 -911571199 -1075382828 2145105270 -1015050060
            -1433461765 1244311371 132063205 -2050656812</internalNodes>
          <leafValues>
            -2.4709260463714600e-001 1.6399474442005157e-001</leafValues></_>
        <_>
          <internalNodes>
            0 -1 369 -203439129 -386789249 -219530108 1351614082
            -1573650812 -983106972 936508354 -1042024869</internalNodes>
          <leafValues>
            -1.8929719924926758e-001 2.2004987299442291e-001</leafValues></_>
        <_>
          <internalNodes>
            0 -1 251 -186466175 -1300050948 -826691567 -102305790
            884239768 -35825295 -1237838099 -1334564340</internalNodes>
          <leafValues>
            -1.9986590743064880e-001 2.0564733445644379e-001</leafValues></_>
        <_>
          <internalNodes>
            0 -1 116 -495276669 -1306345590 -1360235282 1718529782
            2071723379 810915839 1714667452 -136057206</internalNodes>
          <leafValues>
            -1.9240321218967438e-001 2.1899414062500000e-001</leafValues></_></weakClassifiers></_>
    <!-- stage 18 -->
    <_>
      <maxWeakCount>31</maxWeakCount>
      <stageThreshold>-1.4698613882064819e+000</stageThreshold>
      <weakClassifiers>
        <_>
          <internalNodes>
            0 -1 322 -208687597 -1979043872 -1604453131 -16787976
            1867781943 60435381 2140652933 -542116417</internalNodes>
          <leafValues>
            -6.5243822336196899e-001 -3.6219394207000732e-001</leafValues></_>
        <_>
          <internalNodes>
            0 -1 393 2077740719 2146826175 -85399329 1886383769
            1595924042 1244053343 -1264601374 -171705473</internalNodes>
          <leafValues>
            -2.2741265594959259e-001 1.6880510747432709e-001</leafValues></_>
        <_>
          <internalNodes>
            0 -1 254 -992955184 1911073495 -254498287 2113866454
            2138421782 380759410 2093333419 1072150415</internalNodes>
          <leafValues>
            -2.3568540811538696e-001 1.6022510826587677e-001</leafValues></_>
        <_>
          <internalNodes>
            0 -1 25 -1433886255 -1615680019 1140740511 -1107299330
            2065020559 -27290191 -1611157633 -840364015</internalNodes>
          <leafValues>
            -2.2203157842159271e-001 1.6232992708683014e-001</leafValues></_>
        <_>
          <internalNodes>
            0 -1 248 -1439947264 1778540512 -1236447503 753416492
            -1078413728 -1480699280 -220120 -1941921280</internalNodes>
          <leafValues>
            -3.2615295052528381e-001 1.3178262114524841e-001</leafValues></_>
        <_>
          <internalNodes>
            0 -1 192 1241246982 1277070703 1599569075 806775297
            -1812991312 -698620186 598993752 13892686</internalNodes>
          <leafValues>
            -3.5261896252632141e-001 1.1026044189929962e-001</leafValues></_>
